digraph Tree {
node [shape=box, style="filled, rounded", color="black", fontname=helvetica] ;
edge [fontname=helvetica] ;
0 [label="sepal length (cm) <= 5.45\ngini = 0.67\nsamples = 103\nvalue = [50, 49, 51]\nclass = virginica", fillcolor="#fefdff"] ;
1 [label="petal width (cm) <= 0.8\ngini = 0.2\nsamples = 33\nvalue = [46, 6, 0]\nclass = setosa", fillcolor="#e89153"] ;
0 -> 1 [labeldistance=2.5, labelangle=45, headlabel="True"] ;
2 [label="gini = 0.0\nsamples = 30\nvalue = [46, 0, 0]\nclass = setosa", fillcolor="#e58139"] ;
1 -> 2 ;
3 [label="gini = 0.0\nsamples = 3\nvalue = [0, 6, 0]\nclass = versicolor", fillcolor="#39e581"] ;
1 -> 3 ;
4 [label="petal length (cm) <= 4.75\ngini = 0.53\nsamples = 70\nvalue = [4, 43, 51]\nclass = virginica", fillcolor="#ede2fb"] ;
0 -> 4 [labeldistance=2.5, labelangle=-45, headlabel="False"] ;
5 [label="petal width (cm) <= 0.7\ngini = 0.16\nsamples = 31\nvalue = [4, 41, 0]\nclass = versicolor", fillcolor="#4ce88d"] ;
4 -> 5 ;
6 [label="gini = 0.0\nsamples = 3\nvalue = [4, 0, 0]\nclass = setosa", fillcolor="#e58139"] ;
5 -> 6 ;
7 [label="gini = 0.0\nsamples = 28\nvalue = [0, 41, 0]\nclass = versicolor", fillcolor="#39e581"] ;
5 -> 7 ;
8 [label="sepal length (cm) <= 6.75\ngini = 0.07\nsamples = 39\nvalue = [0, 2, 51]\nclass = virginica", fillcolor="#8641e6"] ;
4 -> 8 ;
9 [label="gini = 0.0\nsamples = 26\nvalue = [0, 0, 37]\nclass = virginica", fillcolor="#8139e5"] ;
8 -> 9 ;
10 [label="petal width (cm) <= 1.55\ngini = 0.22\nsamples = 13\nvalue = [0, 2, 14]\nclass = virginica", fillcolor="#9355e9"] ;
8 -> 10 ;
11 [label="gini = 0.0\nsamples = 2\nvalue = [0, 2, 0]\nclass = versicolor", fillcolor="#39e581"] ;
10 -> 11 ;
12 [label="gini = 0.0\nsamples = 11\nvalue = [0, 0, 14]\nclass = virginica", fillcolor="#8139e5"] ;
10 -> 12 ;
}